network unknown {
}
variable Activity {
  type discrete [ 4 ] { SITTING, WALKING, WALKING_DOWN, WALKING_UP };
}
variable GSR_RESISTANCE {
  type discrete [ 4 ] { [77_455], _455_1.46e+03], _1.46e+03_4.94e+03], _4.94e+03_3.4e+05] };
}
variable SKTMP_TEMPERATURE {
  type discrete [ 4 ] { [29.1_29.8], _29.8_30.5], _30.5_31.3], _31.3_35.8] };
}
variable HR_RATE {
  type discrete [ 4 ] { [64_72], _72_75], _75_79], _79_108] };
}
variable RRI_INTERVAL {
  type discrete [ 4 ] { [0.0332_0.63], _0.63_0.747], _0.747_0.83], _0.83_1.48] };
}
probability ( Activity ) {
  table 0.47306282, 0.35465383, 0.07576800, 0.09651536;
}
probability ( GSR_RESISTANCE | Activity, HR_RATE ) {
  (SITTING, [64_72]) 0.33333333, 0.08265027, 0.32650273, 0.25751366;
  (WALKING, [64_72]) 0.1438849, 0.4388489, 0.2546763, 0.1625899;
  (WALKING_DOWN, [64_72]) 0.2673267, 0.2376238, 0.2178218, 0.2772277;
  (WALKING_UP, [64_72]) 0.2857143, 0.6038961, 0.1103896, 0.0000000;
  (SITTING, _72_75]) 0.32345877, 0.05444355, 0.28742994, 0.33466773;
  (WALKING, _72_75]) 0.1041056, 0.2903226, 0.2653959, 0.3401760;
  (WALKING_DOWN, _72_75]) 0.39534884, 0.44186047, 0.02325581, 0.13953488;
  (WALKING_UP, _72_75]) 0.25827815, 0.39735099, 0.06622517, 0.27814570;
  (SITTING, _75_79]) 0.15789474, 0.08881579, 0.32346491, 0.42982456;
  (WALKING, _75_79]) 0.2132450, 0.1695364, 0.3377483, 0.2794702;
  (WALKING_DOWN, _75_79]) 0.1329114, 0.5126582, 0.2405063, 0.1139241;
  (WALKING_UP, _75_79]) 0.3612335, 0.1541850, 0.0000000, 0.4845815;
  (SITTING, _79_108]) 0.1972112, 0.2410359, 0.3565737, 0.2051793;
  (WALKING, _79_108]) 0.26715177, 0.61538462, 0.08419958, 0.03326403;
  (WALKING_DOWN, _79_108]) 0.2974684, 0.3132911, 0.2341772, 0.1550633;
  (WALKING_UP, _79_108]) 0.40645161, 0.40967742, 0.07096774, 0.11290323;
}
probability ( SKTMP_TEMPERATURE | Activity, GSR_RESISTANCE, HR_RATE ) {
  (SITTING, [77_455], [64_72]) 0.5163934, 0.3053279, 0.1782787, 0.0000000;
  (WALKING, [77_455], [64_72]) 0.77, 0.23, 0.00, 0.00;
  (WALKING_DOWN, [77_455], [64_72]) 0.2592593, 0.7407407, 0.0000000, 0.0000000;
  (WALKING_UP, [77_455], [64_72]) 1.0, 0.0, 0.0, 0.0;
  (SITTING, _455_1.46e+03], [64_72]) 0.93388430, 0.00000000, 0.04132231, 0.02479339;
  (WALKING, _455_1.46e+03], [64_72]) 0.0000000, 0.2000000, 0.5016393, 0.2983607;
  (WALKING_DOWN, _455_1.46e+03], [64_72]) 0.0000000, 0.1666667, 0.7083333, 0.1250000;
  (WALKING_UP, _455_1.46e+03], [64_72]) 0.0, 1.0, 0.0, 0.0;
  (SITTING, _1.46e+03_4.94e+03], [64_72]) 0.0460251, 0.0000000, 0.6213389, 0.3326360;
  (WALKING, _1.46e+03_4.94e+03], [64_72]) 0.00000000, 0.19774011, 0.77966102, 0.02259887;
  (WALKING_DOWN, _1.46e+03_4.94e+03], [64_72]) 0.00000000, 0.81818182, 0.13636364, 0.04545455;
  (WALKING_UP, _1.46e+03_4.94e+03], [64_72]) 0.0, 1.0, 0.0, 0.0;
  (SITTING, _4.94e+03_3.4e+05], [64_72]) 0.00000000, 0.03183024, 0.49602122, 0.47214854;
  (WALKING, _4.94e+03_3.4e+05], [64_72]) 0.000000000, 0.884955752, 0.008849558, 0.106194690;
  (WALKING_DOWN, _4.94e+03_3.4e+05], [64_72]) 0.0, 1.0, 0.0, 0.0;
  (WALKING_UP, _4.94e+03_3.4e+05], [64_72]) 0.25, 0.25, 0.25, 0.25;
  (SITTING, [77_455], _72_75]) 0.49009901, 0.22772277, 0.23267327, 0.04950495;
  (WALKING, [77_455], _72_75]) 0.5774648, 0.4225352, 0.0000000, 0.0000000;
  (WALKING_DOWN, [77_455], _72_75]) 0.2352941, 0.7647059, 0.0000000, 0.0000000;
  (WALKING_UP, [77_455], _72_75]) 1.0, 0.0, 0.0, 0.0;
  (SITTING, _455_1.46e+03], _72_75]) 0.97058824, 0.01470588, 0.00000000, 0.01470588;
  (WALKING, _455_1.46e+03], _72_75]) 0.53030303, 0.16161616, 0.26262626, 0.04545455;
  (WALKING_DOWN, _455_1.46e+03], _72_75]) 0.0000000, 0.3684211, 0.0000000, 0.6315789;
  (WALKING_UP, _455_1.46e+03], _72_75]) 0.70000000, 0.28333333, 0.00000000, 0.01666667;
  (SITTING, _1.46e+03_4.94e+03], _72_75]) 0.0000000, 0.0000000, 0.4401114, 0.5598886;
  (WALKING, _1.46e+03_4.94e+03], _72_75]) 0.00000000, 0.09944751, 0.81767956, 0.08287293;
  (WALKING_DOWN, _1.46e+03_4.94e+03], _72_75]) 0.0, 1.0, 0.0, 0.0;
  (WALKING_UP, _1.46e+03_4.94e+03], _72_75]) 0.0, 0.4, 0.6, 0.0;
  (SITTING, _4.94e+03_3.4e+05], _72_75]) 0.0000000, 0.1674641, 0.2248804, 0.6076555;
  (WALKING, _4.94e+03_3.4e+05], _72_75]) 0.0000000, 0.2758621, 0.3103448, 0.4137931;
  (WALKING_DOWN, _4.94e+03_3.4e+05], _72_75]) 0.0, 1.0, 0.0, 0.0;
  (WALKING_UP, _4.94e+03_3.4e+05], _72_75]) 0.0, 0.0, 1.0, 0.0;
  (SITTING, [77_455], _75_79]) 0.3819444, 0.1666667, 0.2847222, 0.1666667;
  (WALKING, [77_455], _75_79]) 0.5652174, 0.4347826, 0.0000000, 0.0000000;
  (WALKING_DOWN, [77_455], _75_79]) 0.2380952, 0.7619048, 0.0000000, 0.0000000;
  (WALKING_UP, [77_455], _75_79]) 0.5, 0.5, 0.0, 0.0;
  (SITTING, _455_1.46e+03], _75_79]) 0.44444444, 0.32098765, 0.03703704, 0.19753086;
  (WALKING, _455_1.46e+03], _75_79]) 0.0000000, 0.4843750, 0.1015625, 0.4140625;
  (WALKING_DOWN, _455_1.46e+03], _75_79]) 0.0000000, 0.5061728, 0.0000000, 0.4938272;
  (WALKING_UP, _455_1.46e+03], _75_79]) 0.8285714, 0.1714286, 0.0000000, 0.0000000;
  (SITTING, _1.46e+03_4.94e+03], _75_79]) 0.0000000, 0.0000000, 0.2271186, 0.7728814;
  (WALKING, _1.46e+03_4.94e+03], _75_79]) 0.02352941, 0.02745098, 0.75294118, 0.19607843;
  (WALKING_DOWN, _1.46e+03_4.94e+03], _75_79]) 0.00000000, 0.68421053, 0.23684211, 0.07894737;
  (WALKING_UP, _1.46e+03_4.94e+03], _75_79]) 0.25, 0.25, 0.25, 0.25;
  (SITTING, _4.94e+03_3.4e+05], _75_79]) 0.00000000, 0.44897959, 0.02040816, 0.53061224;
  (WALKING, _4.94e+03_3.4e+05], _75_79]) 0.0000000, 0.1563981, 0.5971564, 0.2464455;
  (WALKING_DOWN, _4.94e+03_3.4e+05], _75_79]) 0.0, 1.0, 0.0, 0.0;
  (WALKING_UP, _4.94e+03_3.4e+05], _75_79]) 0.0000000, 0.7727273, 0.2272727, 0.0000000;
  (SITTING, [77_455], _79_108]) 0.57575758, 0.30303030, 0.06060606, 0.06060606;
  (WALKING, [77_455], _79_108]) 0.6342412, 0.3657588, 0.0000000, 0.0000000;
  (WALKING_DOWN, [77_455], _79_108]) 0.7021277, 0.2978723, 0.0000000, 0.0000000;
  (WALKING_UP, [77_455], _79_108]) 0.4444444, 0.5555556, 0.0000000, 0.0000000;
  (SITTING, _455_1.46e+03], _79_108]) 0.18181818, 0.72727273, 0.09090909, 0.00000000;
  (WALKING, _455_1.46e+03], _79_108]) 0.58614865, 0.29391892, 0.02702703, 0.09290541;
  (WALKING_DOWN, _455_1.46e+03], _79_108]) 0.5050505, 0.2323232, 0.0000000, 0.2626263;
  (WALKING_UP, _455_1.46e+03], _79_108]) 0.76377953, 0.02362205, 0.05511811, 0.15748031;
  (SITTING, _1.46e+03_4.94e+03], _79_108]) 0.1005587, 0.0000000, 0.0000000, 0.8994413;
  (WALKING, _1.46e+03_4.94e+03], _79_108]) 0.08641975, 0.22222222, 0.51851852, 0.17283951;
  (WALKING_DOWN, _1.46e+03_4.94e+03], _79_108]) 0.7027027, 0.0000000, 0.2972973, 0.0000000;
  (WALKING_UP, _1.46e+03_4.94e+03], _79_108]) 0.0000000, 0.0000000, 0.5454545, 0.4545455;
  (SITTING, _4.94e+03_3.4e+05], _79_108]) 0.0000000, 0.8058252, 0.0000000, 0.1941748;
  (WALKING, _4.94e+03_3.4e+05], _79_108]) 0.00000, 0.59375, 0.28125, 0.12500;
  (WALKING_DOWN, _4.94e+03_3.4e+05], _79_108]) 0.0, 0.0, 1.0, 0.0;
  (WALKING_UP, _4.94e+03_3.4e+05], _79_108]) 0.0, 0.0, 1.0, 0.0;
}
probability ( HR_RATE | Activity ) {
  (SITTING) 0.3547371, 0.3026411, 0.2209838, 0.1216380;
  (WALKING) 0.2246283, 0.2204266, 0.2440207, 0.3109244;
  (WALKING_DOWN) 0.1527988, 0.1301059, 0.2390318, 0.4780635;
  (WALKING_UP) 0.1828979, 0.1793349, 0.2695962, 0.3681710;
}
probability ( RRI_INTERVAL | Activity, HR_RATE ) {
  (SITTING, [64_72]) 0.09562842, 0.12704918, 0.29371585, 0.48360656;
  (WALKING, [64_72]) 0.2877698, 0.2892086, 0.1784173, 0.2446043;
  (WALKING_DOWN, [64_72]) 0.3069307, 0.2475248, 0.1188119, 0.3267327;
  (WALKING_UP, [64_72]) 0.4480519, 0.2857143, 0.1168831, 0.1493506;
  (SITTING, _72_75]) 0.09047238, 0.22417934, 0.39151321, 0.29383507;
  (WALKING, _72_75]) 0.3695015, 0.2873900, 0.1847507, 0.1583578;
  (WALKING_DOWN, _72_75]) 0.3255814, 0.2558140, 0.1976744, 0.2209302;
  (WALKING_UP, _72_75]) 0.4569536, 0.2516556, 0.1788079, 0.1125828;
  (SITTING, _75_79]) 0.1535088, 0.3146930, 0.3289474, 0.2028509;
  (WALKING, _75_79]) 0.2966887, 0.3602649, 0.2304636, 0.1125828;
  (WALKING_DOWN, _75_79]) 0.3607595, 0.2658228, 0.2658228, 0.1075949;
  (WALKING_UP, _75_79]) 0.54185022, 0.26872247, 0.11453744, 0.07488987;
  (SITTING, _79_108]) 0.1633466, 0.4920319, 0.2051793, 0.1394422;
  (WALKING, _79_108]) 0.3762994, 0.3305613, 0.1548857, 0.1382536;
  (WALKING_DOWN, _79_108]) 0.41772152, 0.26265823, 0.25949367, 0.06012658;
  (WALKING_UP, _79_108]) 0.55483871, 0.26129032, 0.10645161, 0.07741935;
}
